digraph Tree {
node [shape=box, fontname="helvetica"] ;
edge [fontname="helvetica"] ;
0 [label="entropy_mag <= -702.763\nentropy = 1.993\nsamples = 416\nvalue = [104, 113, 111, 88]"] ;
1 [label="z_mean <= 0.032\nentropy = 0.369\nsamples = 84\nvalue = [0, 4, 1, 79]"] ;
0 -> 1 [labeldistance=2.5, labelangle=45, headlabel="True"] ;
2 [label="yaw_var <= 0.002\nentropy = 0.097\nsamples = 80\nvalue = [0, 0, 1, 79]"] ;
1 -> 2 ;
3 [label="entropy = 0.0\nsamples = 79\nvalue = [0, 0, 0, 79]"] ;
2 -> 3 ;
4 [label="entropy = 0.0\nsamples = 1\nvalue = [0, 0, 1, 0]"] ;
2 -> 4 ;
5 [label="entropy = 0.0\nsamples = 4\nvalue = [0, 4, 0, 0]"] ;
1 -> 5 ;
6 [label="rms_y <= 0.257\nentropy = 1.721\nsamples = 332\nvalue = [104, 109, 110, 9]"] ;
0 -> 6 [labeldistance=2.5, labelangle=-45, headlabel="False"] ;
7 [label="entropy_mag <= -60.494\nentropy = 1.072\nsamples = 175\nvalue = [78, 95, 2, 0]"] ;
6 -> 7 ;
8 [label="rms_x <= 0.046\nentropy = 0.336\nsamples = 80\nvalue = [2, 76, 2, 0]"] ;
7 -> 8 ;
9 [label="entropy = 0.0\nsamples = 2\nvalue = [2, 0, 0, 0]"] ;
8 -> 9 ;
10 [label="entropy = 0.172\nsamples = 78\nvalue = [0, 76, 2, 0]"] ;
8 -> 10 ;
11 [label="rms_y <= 0.146\nentropy = 0.722\nsamples = 95\nvalue = [76, 19, 0, 0]"] ;
7 -> 11 ;
12 [label="entropy = 0.0\nsamples = 50\nvalue = [50, 0, 0, 0]"] ;
11 -> 12 ;
13 [label="entropy = 0.982\nsamples = 45\nvalue = [26, 19, 0, 0]"] ;
11 -> 13 ;
14 [label="entropy_mag <= 0.869\nentropy = 1.348\nsamples = 157\nvalue = [26, 14, 108, 9]"] ;
6 -> 14 ;
15 [label="rms_y <= 0.42\nentropy = 0.731\nsamples = 103\nvalue = [2, 6, 90, 5]"] ;
14 -> 15 ;
16 [label="entropy = 1.641\nsamples = 21\nvalue = [2, 4, 12, 3]"] ;
15 -> 16 ;
17 [label="entropy = 0.33\nsamples = 82\nvalue = [0, 2, 78, 2]"] ;
15 -> 17 ;
18 [label="entropy_y <= 0.208\nentropy = 1.735\nsamples = 54\nvalue = [24, 8, 18, 4]"] ;
14 -> 18 ;
19 [label="entropy = 0.414\nsamples = 12\nvalue = [11, 0, 0, 1]"] ;
18 -> 19 ;
20 [label="entropy = 1.775\nsamples = 42\nvalue = [13, 8, 18, 3]"] ;
18 -> 20 ;
}