digraph Tree {
node [shape=box, fontname="helvetica"] ;
edge [fontname="helvetica"] ;
0 [label="rms_y <= 0.283\nentropy = 1.922\nsamples = 371\nvalue = [104, 113, 110, 44]"] ;
1 [label="entropy_mag <= -60.494\nentropy = 1.595\nsamples = 226\nvalue = [81, 101, 4, 40]"] ;
0 -> 1 [labeldistance=2.5, labelangle=45, headlabel="True"] ;
2 [label="entropy_mag <= -702.763\nentropy = 1.19\nsamples = 127\nvalue = [2, 81, 4, 40]"] ;
1 -> 2 ;
3 [label="z_mean <= -0.016\nentropy = 0.593\nsamples = 44\nvalue = [0, 4, 1, 39]"] ;
2 -> 3 ;
4 [label="entropy = 0.0\nsamples = 39\nvalue = [0, 0, 0, 39]"] ;
3 -> 4 ;
5 [label="entropy = 0.722\nsamples = 5\nvalue = [0, 4, 1, 0]"] ;
3 -> 5 ;
6 [label="std_z <= 0.267\nentropy = 0.48\nsamples = 83\nvalue = [2, 77, 3, 1]"] ;
2 -> 6 ;
7 [label="entropy = 0.177\nsamples = 75\nvalue = [2, 73, 0, 0]"] ;
6 -> 7 ;
8 [label="entropy = 1.406\nsamples = 8\nvalue = [0, 4, 3, 1]"] ;
6 -> 8 ;
9 [label="rms_y <= 0.146\nentropy = 0.726\nsamples = 99\nvalue = [79, 20, 0, 0]"] ;
1 -> 9 ;
10 [label="entropy = 0.0\nsamples = 50\nvalue = [50, 0, 0, 0]"] ;
9 -> 10 ;
11 [label="entropy_mag <= -11.684\nentropy = 0.976\nsamples = 49\nvalue = [29, 20, 0, 0]"] ;
9 -> 11 ;
12 [label="entropy = 0.65\nsamples = 24\nvalue = [4, 20, 0, 0]"] ;
11 -> 12 ;
13 [label="entropy = 0.0\nsamples = 25\nvalue = [25, 0, 0, 0]"] ;
11 -> 13 ;
14 [label="entropy_mag <= 0.97\nentropy = 1.192\nsamples = 145\nvalue = [23, 12, 106, 4]"] ;
0 -> 14 [labeldistance=2.5, labelangle=-45, headlabel="False"] ;
15 [label="pitch <= -131.449\nentropy = 0.481\nsamples = 95\nvalue = [1, 4, 88, 2]"] ;
14 -> 15 ;
16 [label="entropy = 0.0\nsamples = 2\nvalue = [0, 2, 0, 0]"] ;
15 -> 16 ;
17 [label="rms_y <= 0.42\nentropy = 0.384\nsamples = 93\nvalue = [1, 2, 88, 2]"] ;
15 -> 17 ;
18 [label="entropy = 1.292\nsamples = 14\nvalue = [1, 2, 10, 1]"] ;
17 -> 18 ;
19 [label="entropy = 0.098\nsamples = 79\nvalue = [0, 0, 78, 1]"] ;
17 -> 19 ;
20 [label="entropy_y <= 0.208\nentropy = 1.661\nsamples = 50\nvalue = [22, 8, 18, 2]"] ;
14 -> 20 ;
21 [label="entropy = 0.0\nsamples = 9\nvalue = [9, 0, 0, 0]"] ;
20 -> 21 ;
22 [label="x_mean <= 0.414\nentropy = 1.719\nsamples = 41\nvalue = [13, 8, 18, 2]"] ;
20 -> 22 ;
23 [label="entropy = 1.807\nsamples = 31\nvalue = [12, 8, 9, 2]"] ;
22 -> 23 ;
24 [label="entropy = 0.469\nsamples = 10\nvalue = [1, 0, 9, 0]"] ;
22 -> 24 ;
}